{
    "levels": [
        {
            "inputs": [
                0.17504725604367166,
                0.04742662241618678,
                0,
                0,
                0,
                0,
                0
            ],
            "outputs": [
                0,
                0,
                1,
                0,
                0,
                0,
                0
            ],
            "biases": [
                0.4006954233058921,
                -0.1147948996138074,
                -0.7451443968243547,
                0.16295036901228255,
                0.30531141759601965,
                0.23910207590443178,
                0.6605267735970677
            ],
            "weights": [
                [
                    -0.28950686397666353,
                    -0.6448597438603209,
                    -0.11637474890411847,
                    -0.24725347226789296,
                    -0.6780634258744834,
                    -0.01771083032405748,
                    -0.23904484603503953
                ],
                [
                    0.27361931072051526,
                    -0.06083641157154634,
                    0.3197530920076976,
                    0.4885086571840966,
                    0.20072177883069603,
                    0.35369734208334586,
                    -0.6222696858335444
                ],
                [
                    0.31412908966504643,
                    0.5952431151717997,
                    -0.2562141824213688,
                    0.6280467796412602,
                    0.6220947810854446,
                    -0.13300435273141736,
                    -0.11043132269009545
                ],
                [
                    -0.6476844076854689,
                    0.44076459536910173,
                    -0.42204878878115876,
                    0.26101223806658935,
                    0.32553330268373737,
                    0.12506302337728564,
                    0.3129887460792477
                ],
                [
                    -0.6812651987945257,
                    -0.5351165751249933,
                    0.1810964976704761,
                    -0.15443495920954087,
                    -0.017935361823698474,
                    0.6588051822388588,
                    0.4320544365578363
                ],
                [
                    -0.20555654718094749,
                    0.1986498223482523,
                    0.4976827854032924,
                    -0.12797292329405444,
                    -0.12359549569225568,
                    -0.3165325130649801,
                    0.37975637053111877
                ],
                [
                    -0.5940875866916149,
                    -0.39036317192715175,
                    0.21863536501241837,
                    0.20429988696197016,
                    -0.05801301598173375,
                    0.588028852455453,
                    0.3843330402055829
                ]
            ]
        },
        {
            "inputs": [
                0,
                0,
                1,
                0,
                0,
                0,
                0
            ],
            "outputs": [
                1,
                0,
                0,
                0
            ],
            "biases": [
                -0.8226970709108057,
                -0.08415679217107064,
                0.4650906300034119,
                -0.005827472656094464
            ],
            "weights": [
                [
                    0.37491805437951986,
                    -0.28632275494316173,
                    -0.4373516518007544,
                    -0.29364659160328027
                ],
                [
                    -0.2880890053046897,
                    0.37701203837960895,
                    0.027582094650424174,
                    0.12111632669676427
                ],
                [
                    0.2842218063895468,
                    -0.09523496268384118,
                    0.04398882571901322,
                    -0.14695653162946737
                ],
                [
                    0.28433452118260405,
                    -0.5946482721113766,
                    0.6877225169649885,
                    0.48259801824897935
                ],
                [
                    -0.25773692668305564,
                    0.10608134825599794,
                    -0.49457422529471157,
                    0.548589984938449
                ],
                [
                    -0.14475380427892873,
                    0.028071389366887398,
                    -0.30549790400304777,
                    -0.36720422895442467
                ],
                [
                    0.351907548236275,
                    -0.20562309023397893,
                    0.343211865905246,
                    0.5046736101294461
                ]
            ]
        }
    ]
}